cookies -0.021302 0.006715 0.002073 0.008410 0.027125 -0.022862 0.012799 0.000615 -0.016225 -0.010701 0.020204 0.063584 0.000868 0.014515 0.009095 -0.008987 0.028153 -0.001389 -0.008872 -0.031115 -0.015613 -0.011742 0.023002 0.002474 -0.066464 -0.014566 -0.019434 0.016313 -0.026200 0.014744 -0.035980 0.030113 -0.010745 -0.011423 -0.036919 -0.026003 -0.016572 0.046975 0.026671 -0.014926 0.007019 0.014086 0.016768 0.014667 0.029692 0.053379 -0.005980 0.017079 0.031611 0.015614
vivendi -0.014901 0.012539 0.028673 0.015828 -0.008609 0.012356 -0.033079 0.018277 0.037026 0.011309 -0.020408 0.013407 -0.018723 0.010479 0.001693 -0.028863 -0.014532 -0.009267 -0.009272 0.003452 0.022223 -0.021177 0.009435 -0.002131 0.040469 0.014212 0.028155 -0.017154 0.013205 0.014916 0.004756 -0.010968 0.002393 0.018373 0.046973 0.057249 -0.000462 0.010341 -0.016832 -0.007122 -0.011292 0.012740 -0.011485 -0.009817 -0.030168 -0.009297 -0.010569 0.024707 -0.007570 -0.009783
fr 0.008464 0.019826 0.004333 0.003710 0.003419 -0.001587 -0.009351 -0.007876 -0.000925 0.004352 -0.011714 0.020590 0.005562 -0.020327 -0.014949 -0.001310 -0.014186 -0.024264 0.014840 -0.015619 0.011943 -0.004337 -0.000573 -0.012638 -0.022474 0.006553 0.014281 -0.008469 -0.004300 0.027805 -0.001606 -0.000809 -0.005765 0.018317 -0.020087 0.033614 -0.003810 0.025602 0.032924 -0.010296 -0.004111 0.012725 0.010998 0.013869 0.007175 0.012573 0.002746 0.019233 -0.001201 0.016806
'cliquez 0.002642 0.001050 0.001297 0.003058 0.020496 -0.021792 -0.013678 0.009878 0.015945 -0.011581 -0.009979 -0.019529 0.001942 0.009360 -0.014973 0.003496 0.003614 0.006810 0.005016 0.018543 -0.016332 -0.015495 -0.003604 0.023112 0.011446 0.002193 -0.018262 0.028213 0.006618 -0.022890 -0.027440 0.023442 0.019442 -0.003638 0.010077 -0.018418 0.032574 0.003488 -0.024299 -0.007812 0.025126 -0.003256 -0.015140 0.008037 -0.008505 -0.007671 0.004164 0.006648 -0.024191 0.001423
navigation -0.000602 -0.019697 0.007316 -0.004004 0.021770 0.002674 0.024800 0.009259 -0.016536 -0.001069 0.007963 0.027948 -0.008311 0.015386 0.024510 0.012460 0.010605 -0.007112 -0.004295 0.006969 -0.012069 0.004185 -0.002659 0.007456 -0.018241 -0.011411 -0.011271 0.005271 0.006588 0.000717 -0.012107 0.009422 0.003290 -0.012895 -0.005481 0.002510 -0.011214 -0.002469 0.023165 0.008800 0.006961 0.004668 0.026166 -0.007827 0.002466 -0.000561 0.004878 0.011167 0.019993 -0.004978
site -0.003555 -0.007157 -0.006240 0.007709 0.025739 0.004919 0.007276 -0.006944 -0.008157 -0.017580 -0.001418 0.016877 0.004556 0.018320 -0.005442 0.010641 0.014772 0.012231 -0.004940 0.002608 -0.003069 -0.009946 -0.001725 0.016035 -0.003941 0.003149 -0.015209 -0.000169 -0.008857 -0.002908 0.001987 0.008361 -0.000353 -0.007237 -0.007455 0.016604 -0.017047 0.023099 0.010255 0.011226 0.011667 0.002826 0.016446 0.008206 0.002127 0.013651 0.007894 0.016118 0.000392 -0.005093
f -0.030793 -0.016798 -0.028982 0.000789 0.005653 -0.032573 0.002019 -0.000804 0.011717 -0.001750 0.009298 -0.008024 0.003239 -0.006813 0.016067 -0.011570 0.019985 0.005281 0.005614 -0.006463 -0.010916 0.007431 0.006390 -0.015778 0.020042 0.007536 0.014693 0.002105 0.012959 -0.010949 -0.024821 0.008290 0.011010 -0.005814 0.031253 -0.043926 0.018661 -0.034318 -0.031690 0.010947 0.005016 -0.004646 -0.041400 -0.019135 -0.009315 0.006957 0.009004 -0.022105 -0.011536 0.000416
heures 0.013388 0.028225 -0.011115 -0.019202 0.006165 0.004042 -0.022754 0.022181 0.014194 0.000747 -0.010390 -0.026794 -0.037138 -0.004195 -0.041544 -0.010029 -0.017188 0.021632 0.032757 -0.007590 -0.006473 -0.009814 -0.014042 0.005082 0.028388 -0.006180 0.011303 -0.038192 0.028634 -0.009041 0.018739 -0.027255 0.010610 0.038273 0.006115 -0.015376 -0.004219 -0.003349 -0.005875 -0.000507 0.013304 0.002084 0.009291 0.004338 -0.027126 -0.025934 0.009636 0.000336 -0.010186 0.010467
http 0.007928 0.001329 -0.006349 -0.009481 -0.001757 -0.006731 -0.008281 -0.016043 0.000542 0.006936 0.007072 0.018392 -0.007876 -0.001152 -0.011937 -0.003879 0.011758 -0.008091 0.003468 0.001417 0.002750 -0.003552 0.002485 -0.005069 -0.031890 -0.013107 0.011993 0.000154 0.002414 0.014579 -0.007205 -0.018308 -0.018759 0.021014 -0.027136 0.005591 -0.011518 0.035427 0.017105 -0.021111 -0.016781 0.012247 0.018293 0.015281 -0.000692 0.017755 -0.000933 0.001825 0.002047 0.012013
menu 0.005382 0.020668 -0.008152 -0.001667 -0.013414 -0.012351 0.001933 0.011060 -0.001634 -0.007769 -0.003492 0.001984 0.002257 -0.011110 0.003814 -0.016825 0.007487 -0.006329 0.001039 -0.011653 -0.002214 -0.027543 0.014263 -0.008790 0.010579 0.005146 -0.014792 0.005160 -0.003225 -0.011892 0.009285 0.019021 -0.008239 -0.018292 0.000864 0.011223 0.007443 0.007676 0.004669 -0.005028 0.012658 0.016934 0.009953 0.013382 0.003157 -0.007187 -0.003814 0.006026 -0.024436 -0.009974
pr -0.023093 -0.017062 -0.017306 -0.006873 -0.009866 -0.019719 0.003498 0.002904 0.000788 -0.004819 0.014988 -0.013751 0.009670 -0.009958 0.017073 -0.001705 0.021291 0.006663 0.000292 -0.005573 -0.012098 0.008410 0.007233 -0.010830 0.019821 0.006513 0.005675 0.007451 0.000383 -0.005482 -0.018174 -0.000158 0.018751 -0.021039 0.020670 -0.042920 0.014008 -0.031520 -0.030032 0.009155 0.003102 -0.005497 -0.041243 -0.020778 0.000325 -0.002565 -0.000646 -0.025608 -0.017960 0.009250
tiers -0.009884 -0.003567 0.008646 -0.003471 0.023895 0.001235 -0.001956 0.004920 -0.012721 -0.011176 0.011640 0.034724 -0.000891 -0.000140 0.021081 0.011950 -0.002149 0.004367 -0.004018 -0.013443 0.003616 -0.000378 0.023602 0.000763 -0.034180 0.010921 -0.010479 -0.003635 -0.013797 0.012302 -0.011555 0.021053 -0.000186 0.000137 -0.018537 -0.004746 0.005191 0.013622 0.017848 -0.012905 -0.006938 0.013442 0.011054 0.001880 0.012711 0.019118 -0.005734 0.016090 0.023972 0.013081
contacts -0.010626 0.003756 0.014984 0.000907 -0.011711 0.002328 -0.011512 0.004152 0.006154 0.005366 -0.010299 0.000567 -0.005102 0.006114 0.003905 0.002444 0.005981 -0.030500 -0.001320 0.012397 0.012661 0.001760 0.011336 -0.008790 0.033792 -0.003999 0.015327 0.011745 -0.002056 -0.009090 0.003525 -0.006182 0.004618 0.003474 0.027362 0.048535 -0.010515 -0.015667 -0.013877 -0.013205 -0.006615 0.008925 0.014612 -0.007074 -0.026512 0.000460 -0.014737 -0.001031 -0.003293 -0.023849
cookie -0.014537 -0.006080 -0.002566 -0.008642 -0.003176 0.008446 0.017909 -0.013681 -0.002167 -0.009627 0.000364 -0.005039 -0.011643 0.000733 0.020727 -0.003635 0.000361 -0.003884 -0.005968 0.003891 0.006140 0.009068 -0.005359 0.017104 -0.001521 0.013213 -0.005759 0.014577 -0.006081 -0.008265 0.007555 0.011016 -0.001523 -0.011361 -0.003205 0.001768 -0.011516 0.003069 -0.007208 0.002572 0.000691 0.007847 0.017726 0.007823 0.003245 0.013381 -0.005117 0.009598 0.002833 -0.002095
groupe -0.001699 0.006979 -0.000432 0.015474 -0.016576 0.012506 -0.019658 -0.014324 0.003641 -0.004868 -0.000082 0.002863 -0.014621 -0.000959 -0.014855 0.005444 -0.013558 0.007333 -0.006881 0.006501 0.018782 0.009513 0.004169 -0.003978 0.017565 0.017674 0.010275 -0.017148 -0.000328 -0.018056 0.003664 -0.005086 -0.016524 -0.004379 0.009311 0.021918 -0.017738 0.011652 -0.017521 0.004223 0.008851 0.006832 0.000653 -0.002402 -0.010169 0.007397 -0.022458 0.007699 0.003474 -0.002872
informations -0.015809 -0.004477 0.014404 0.018060 0.015600 -0.010947 -0.015675 -0.006576 0.009789 0.014906 -0.000571 0.011730 -0.011556 0.003912 0.015254 0.001627 -0.009563 -0.011930 -0.014341 0.002854 0.002383 0.002155 0.008277 0.000724 0.000416 -0.005148 0.002015 0.003517 0.002741 0.020955 -0.015757 0.000499 -0.005620 0.001369 0.020498 0.031422 0.002347 0.004048 -0.008275 -0.000622 -0.022940 0.018631 -0.002068 -0.003632 0.011051 0.006402 -0.007884 0.008367 0.007816 -0.016474
jours 0.013201 0.026143 -0.018912 -0.008892 0.002354 0.004887 -0.017197 0.025507 0.013811 -0.008546 -0.016334 -0.025432 -0.031683 -0.002760 -0.033364 -0.007236 -0.013179 0.016183 0.028011 0.002803 0.002362 -0.007339 -0.022315 0.007573 0.013125 -0.004701 0.000232 -0.031949 0.016871 0.005221 0.018937 -0.013826 0.002574 0.027982 0.017042 -0.012582 -0.007110 -0.000492 -0.012588 0.000095 0.020274 -0.001413 0.008373 -0.000054 -0.012685 -0.019242 0.014219 -0.002668 -0.014941 0.003288
param -0.011735 -0.001430 -0.008865 0.011924 0.012993 -0.019183 0.012853 -0.004369 0.006601 -0.009280 -0.006131 -0.020920 -0.016590 -0.006634 0.004302 0.001562 0.008207 0.003124 -0.000698 0.007263 -0.021775 -0.001908 0.014626 0.013201 0.005832 -0.009089 -0.013109 0.023829 0.021573 -0.002634 -0.036955 0.017461 0.023027 -0.002706 0.015440 -0.030500 0.024305 0.001512 -0.023740 -0.006521 0.014153 -0.005554 -0.020682 -0.000045 -0.000883 -0.000857 0.005462 -0.007049 -0.010776 0.008034
policy 0.003389 0.010093 -0.005123 0.003323 0.003709 -0.017811 0.009613 0.009475 -0.016045 -0.002170 0.003547 0.021279 -0.009423 0.012476 -0.008197 -0.003149 0.007261 0.007346 0.000221 -0.010421 -0.015457 -0.015367 -0.001077 0.001122 -0.021246 0.005227 -0.019694 0.010462 -0.008242 0.003667 -0.018738 0.022200 -0.015569 0.011994 -0.017892 -0.012345 -0.007114 0.011188 0.025442 0.009201 0.007147 -0.000314 0.000779 0.022052 0.016151 0.016815 0.009341 0.009888 0.004171 0.003163
r -0.010912 0.001450 0.006410 0.019697 0.017276 -0.013250 -0.012257 -0.005622 0.010065 0.012210 -0.000601 0.009540 -0.014365 0.000597 0.014720 0.001932 -0.003452 0.004600 0.006996 0.009387 0.008899 0.001009 0.003972 0.007317 0.005507 -0.001123 0.000585 -0.003728 0.002426 0.010535 -0.000038 0.009046 0.008304 0.007233 0.018389 0.035855 -0.012326 -0.006186 -0.023882 -0.013135 -0.018858 0.009861 -0.013475 0.000581 0.005247 -0.000688 -0.001174 0.010656 0.006386 -0.012010
rt 0.008170 0.018627 -0.017446 -0.020602 0.005819 -0.008106 -0.013198 0.021749 0.016521 0.006973 -0.012382 -0.015950 -0.023817 -0.000925 -0.038434 -0.014609 -0.013485 0.012139 0.030430 -0.015908 -0.001920 -0.010195 -0.024056 -0.007195 0.027194 -0.007921 0.020649 -0.026092 0.032090 -0.000889 0.010683 -0.016633 0.009540 0.033937 0.005888 -0.012224 0.011481 -0.008735 -0.006174 -0.009338 0.004338 0.007558 0.003866 0.006489 -0.021732 -0.017232 0.007125 0.001375 -0.009876 -0.005585
suivre 0.012076 -0.006548 0.021478 -0.016033 -0.010205 0.012181 -0.012518 0.017971 -0.005985 -0.002788 0.011348 0.000694 0.010664 -0.005204 0.015138 0.003347 -0.013370 0.002137 0.017122 0.000066 -0.013072 -0.003582 -0.000149 0.003086 0.021298 0.004533 0.005558 -0.007803 -0.013789 -0.014968 0.015821 -0.007284 0.012124 -0.003238 0.019518 -0.003822 0.003949 0.000587 -0.014147 0.002761 -0.009903 -0.014423 -0.004720 -0.007289 -0.011473 -0.012976 0.000680 -0.003887 -0.002011 0.016083
tout -0.002763 0.004108 -0.003112 -0.003358 0.007393 0.014607 0.006090 0.010465 -0.005740 0.006999 0.022603 0.009132 -0.000995 -0.009130 0.006182 0.007828 0.018829 -0.004824 0.006157 0.014725 0.008089 0.021368 0.008370 0.002665 -0.003512 -0.000261 0.009126 0.013530 -0.023303 -0.020634 -0.003513 -0.003040 0.026180 -0.025879 -0.000451 -0.016661 -0.018304 -0.026101 -0.012338 -0.001663 0.005205 -0.006177 -0.004969 0.006149 0.004849 0.025595 -0.016519 -0.001673 0.014218 -0.000085
autres 0.023880 0.003508 -0.009183 -0.006191 -0.000080 -0.003295 0.010566 0.005788 0.001841 0.000262 0.012317 -0.006629 0.002650 -0.017295 0.001943 0.002183 -0.010998 0.002884 0.016078 -0.001536 0.001276 0.000313 -0.010251 -0.009994 0.005824 0.007426 -0.001738 0.008915 -0.004556 -0.007409 -0.005019 0.002575 -0.018582 0.000917 -0.013480 -0.009232 -0.018420 -0.013917 0.005720 -0.004760 0.007162 -0.009851 -0.012749 -0.002214 0.024904 -0.020107 0.017339 -0.010211 -0.008417 0.001810
cnil 0.008485 -0.000712 0.000573 -0.011616 0.006732 -0.000686 -0.005201 -0.002826 -0.021300 -0.004078 -0.004971 0.015580 0.017516 -0.008511 -0.012634 0.007615 -0.013280 -0.016441 0.011238 0.009318 -0.005093 -0.006677 -0.008667 -0.004714 -0.002826 -0.020987 -0.001974 0.003668 0.000344 -0.005322 0.014537 -0.012765 -0.009320 0.018738 -0.003529 0.001940 -0.013215 0.026420 0.010933 -0.000143 -0.005500 0.005616 -0.000126 -0.002609 -0.004910 -0.006999 0.001148 -0.002366 -0.006561 0.009409
com 0.001433 0.008127 -0.001247 -0.001781 -0.005885 0.000301 -0.003089 -0.006707 0.006659 0.008686 0.000099 -0.015163 -0.008863 -0.009866 -0.022367 0.015459 0.003027 -0.004679 0.007165 -0.000194 0.007375 -0.010360 0.004140 -0.004768 -0.005057 -0.002825 0.009356 -0.000518 -0.011459 0.019213 0.002504 -0.011637 0.002452 0.006249 0.011228 0.029390 0.003036 0.006545 0.014121 0.011362 -0.016625 0.019050 0.006768 0.004036 -0.002295 0.002938 -0.009699 0.012761 -0.003771 0.023767
contenus -0.004131 0.005425 0.005771 0.007224 0.001682 -0.004544 -0.002318 0.018838 -0.009851 -0.004133 0.012104 0.007858 0.012613 -0.006363 -0.005886 0.008796 0.018433 0.006349 -0.012208 -0.009249 -0.013259 -0.005866 -0.019820 -0.020172 -0.013324 -0.020523 0.005624 0.000203 -0.017570 0.013893 -0.005639 0.017728 0.002784 -0.002220 -0.011598 -0.006297 -0.000468 0.014358 0.009395 -0.000329 0.008041 0.000441 0.001567 -0.013943 0.007827 0.013321 0.001647 0.010638 0.020675 0.001324
cr 0.001827 0.004729 -0.006214 -0.019419 -0.018363 0.001215 -0.001094 -0.019985 0.007219 -0.009647 -0.002339 -0.017663 0.007500 -0.006560 -0.003777 0.012615 0.003955 0.009802 0.006880 0.010829 -0.001125 0.006510 0.004394 0.005467 -0.007220 0.011193 0.002625 0.001518 0.001593 -0.004017 0.005536 -0.004486 0.021275 0.016771 -0.003851 -0.017055 -0.013736 -0.011578 0.011338 0.005829 -0.001526 0.002953 -0.012434 0.000243 0.007736 -0.015923 -0.007165 -0.008326 0.005151 -0.004388
donn -0.006287 -0.007547 -0.009163 0.001023 0.001782 0.013281 0.013024 0.005525 -0.008345 -0.004842 -0.002423 -0.008241 0.016200 0.018930 -0.003478 0.003817 0.004926 0.000027 -0.015639 0.000415 -0.016866 -0.006170 -0.013146 -0.009156 -0.019644 -0.012280 -0.006361 0.002248 -0.003028 0.009525 0.002418 0.013288 0.010926 -0.000585 -0.024322 -0.018980 -0.004091 0.009972 0.019574 -0.004938 -0.011696 -0.008409 -0.004699 -0.002781 0.003071 0.005260 -0.001419 -0.002592 0.010079 -0.008164
e 0.001571 0.007270 0.008715 0.005478 -0.010139 0.004455 -0.000423 0.012750 0.002739 -0.005279 0.002209 -0.007277 -0.010407 -0.000878 -0.002532 -0.000277 -0.018111 0.000197 0.000528 0.009563 -0.000121 0.008717 -0.010390 0.001614 0.013711 0.004099 -0.001128 0.003801 0.014613 0.001866 0.012561 -0.015034 0.001239 0.009901 0.007932 0.012302 0.015672 -0.005010 -0.016737 -0.001430 -0.001160 0.001287 -0.006852 0.002331 0.009333 -0.010493 -0.005638 -0.000319 -0.005661 0.003553
facebook -0.011302 0.002171 0.018711 0.002825 -0.009562 0.010030 -0.028855 0.006978 0.022208 0.019964 -0.009019 0.017019 -0.004294 0.014073 0.020026 -0.020652 -0.004495 -0.004631 -0.009143 0.005971 0.019272 -0.017989 0.017942 -0.007393 0.018622 0.013143 0.008790 -0.011306 -0.003268 0.017858 -0.000809 -0.014880 -0.006405 0.008457 0.032200 0.041283 -0.003434 0.014420 -0.006262 0.002137 -0.018299 0.003787 -0.003545 -0.011725 -0.004637 -0.008708 -0.000800 0.016090 -0.006984 0.005115
modifier 0.000930 -0.001829 -0.004490 -0.018379 0.008781 -0.002065 0.013015 0.000379 -0.003136 0.013379 0.000912 0.014929 0.014243 0.008254 0.016079 -0.011301 0.006678 0.009408 -0.000473 0.001165 0.009328 0.012053 0.000527 0.010037 -0.004233 0.016993 0.006897 0.008497 -0.024888 0.008122 0.001167 0.006546 0.011500 -0.003277 -0.003346 -0.008420 -0.004850 -0.011179 0.000523 0.008648 0.002419 0.003505 0.005860 -0.007073 0.008576 0.000268 -0.000578 -0.011353 -0.004955 -0.003607
options -0.014480 0.010733 0.003442 0.010890 0.001078 0.000644 -0.001016 0.004913 0.002098 0.002725 -0.014491 -0.008347 -0.004978 -0.005946 0.016041 -0.011195 0.000869 0.005363 0.003313 0.005262 0.004515 0.003993 -0.001307 -0.010317 -0.008116 0.014715 -0.009042 -0.011197 -0.015861 0.000572 0.004543 -0.003538 0.000953 0.004914 -0.004493 0.012872 -0.000492 -0.005888 -0.003663 -0.013764 0.002066 0.005924 -0.008856 0.013946 0.007117 0.014414 0.001900 0.010453 0.003921 0.015639
presse -0.009830 -0.006761 0.017201 -0.004749 -0.001153 0.006555 -0.007039 0.009420 -0.010056 0.008546 -0.016904 -0.001625 0.002891 0.006071 0.017775 0.005657 0.006619 -0.029756 0.007563 0.015311 0.013591 0.007800 0.017617 -0.016083 0.034844 -0.012199 0.014770 0.019434 -0.000381 -0.001934 -0.002906 -0.007851 0.016258 -0.001420 0.016058 0.039037 0.010512 -0.020567 0.001244 -0.018564 -0.009124 -0.003483 0.025009 -0.016582 -0.021231 0.005462 -0.015524 -0.007589 0.003471 -0.030881
protection 0.010339 0.006615 0.002063 0.012867 -0.009871 0.008680 0.020751 0.001666 -0.001236 0.000101 0.004262 -0.007796 0.015747 0.015605 -0.018850 0.001293 0.003026 -0.006334 -0.010021 0.005535 -0.025342 0.003407 -0.010533 -0.002665 -0.007642 -0.006506 -0.018512 0.003960 -0.000199 0.015342 0.002691 0.015608 -0.003388 -0.001631 -0.016128 -0.009208 -0.010842 0.001281 0.014691 0.018761 -0.021639 -0.006533 0.000297 -0.009401 0.011214 0.005201 0.004335 -0.002144 -0.007250 -0.006210
rences -0.024876 -0.019682 -0.020494 0.001514 -0.002929 -0.030349 -0.000303 -0.007144 0.005228 0.003708 0.020417 0.015189 0.010055 -0.001776 0.016340 -0.003622 0.015942 0.004275 0.010548 -0.000158 -0.009254 0.014841 0.010545 -0.004426 -0.009755 0.010969 0.009771 -0.009497 0.017493 0.004211 -0.020940 -0.001881 -0.010168 -0.000212 0.019997 -0.022765 0.005893 -0.021545 -0.023762 0.004714 -0.007257 -0.008332 -0.012733 -0.016086 0.005942 0.013816 -0.014167 -0.007751 -0.004803 -0.001033
safari -0.001455 0.013858 -0.006348 -0.006222 -0.017937 0.004353 0.003653 0.012604 0.004920 0.001664 0.005929 -0.012901 -0.004968 -0.010111 0.007110 -0.005183 -0.015360 -0.007121 -0.000313 -0.003379 0.010015 -0.006688 0.001025 0.007361 0.004430 0.018975 0.008671 0.007691 -0.006358 0.003786 -0.003839 0.001339 0.008181 -0.013809 0.003543 0.014309 0.007347 -0.010305 0.005615 0.015554 0.004400 0.005718 0.011981 0.014221 0.013598 0.010398 -0.006507 -0.011337 -0.022356 0.010253
session -0.004633 0.000008 -0.006852 0.005276 -0.012162 0.005723 0.011861 0.008033 -0.001939 -0.002107 0.015289 -0.006275 -0.011974 -0.001927 0.017325 -0.009420 0.006713 0.002664 -0.008307 0.001899 0.000695 0.003386 -0.014046 0.008389 0.002876 -0.002213 0.005752 0.002625 0.016713 0.002873 0.015800 -0.003454 0.001299 -0.000184 0.000723 -0.005054 -0.000182 0.001028 0.005260 0.006148 0.014572 -0.010681 0.006609 -0.012234 -0.007590 0.016557 0.001153 0.015960 -0.007015 -0.004722
support 0.016606 0.004331 0.007626 -0.002090 -0.002670 -0.003238 -0.001201 -0.005643 0.004440 0.013528 0.005364 -0.002710 -0.021372 -0.017153 -0.019051 0.001298 -0.010203 0.007464 0.006577 0.003950 0.010944 -0.004672 0.010998 -0.002140 -0.006703 0.015985 0.011601 -0.000905 -0.002683 0.017833 0.004893 -0.017549 0.011765 0.017865 0.003201 0.026193 0.002437 -0.012976 0.022377 0.008193 -0.004830 0.008149 0.010698 -0.001854 0.001529 0.012010 -0.007104 0.006031 0.008894 0.015442
traces 0.005695 -0.002741 0.003618 -0.006593 0.012959 0.012829 -0.000389 -0.017727 -0.013538 -0.009927 -0.013107 0.006953 -0.002818 -0.008688 -0.005233 -0.013903 -0.013244 -0.012999 0.009252 -0.000169 0.010111 0.004431 0.001610 -0.010017 -0.006958 -0.011085 -0.003764 -0.004569 -0.003950 -0.010238 0.012772 -0.007039 0.001563 0.018069 -0.018612 0.006929 -0.014267 -0.000348 -0.010405 -0.016129 0.007128 0.014193 0.008272 0.012796 0.007062 0.003544 0.004670 -0.008576 -0.006452 0.011599
tre -0.020240 -0.005379 0.007883 -0.002972 0.002125 0.005285 -0.008684 -0.021566 -0.003941 -0.007599 0.013976 -0.014936 0.009681 0.000828 0.005694 -0.016219 0.013059 0.014734 -0.004745 0.022194 0.008122 0.017158 -0.008790 0.005654 0.014031 0.010714 -0.005123 -0.015214 0.011881 0.001499 0.015228 -0.023625 0.008995 -0.004033 0.010684 -0.004341 0.025011 -0.013429 -0.016836 -0.003776 0.014040 -0.014679 0.015972 -0.009538 -0.009556 0.013176 -0.002989 0.008798 0.016257 0.004820
web 0.013502 -0.008920 -0.008102 0.004941 0.008547 -0.008803 -0.016745 -0.015614 0.007633 -0.004680 0.003269 0.005459 -0.003043 -0.006524 -0.021765 -0.001522 0.008225 -0.003253 -0.007621 -0.010835 -0.007740 -0.007137 -0.001181 -0.002796 0.006590 -0.010519 0.000621 -0.012182 -0.012846 -0.006244 0.018700 -0.008583 -0.014478 0.006827 0.000639 0.006098 -0.004859 0.012895 -0.013102 0.009158 0.017510 0.002771 0.008509 -0.004837 -0.003875 -0.002657 -0.006493 -0.007948 0.003580 0.009252
www 0.008675 0.002933 -0.014871 0.005000 0.003419 -0.006541 -0.004975 -0.018146 -0.011918 -0.003341 0.007533 0.014133 0.000996 -0.012161 -0.014146 0.004415 0.005246 -0.010689 0.003274 0.013126 -0.007322 -0.003010 -0.006109 -0.004696 -0.011687 -0.016992 0.010808 0.006046 -0.000146 0.009687 -0.004704 -0.017966 -0.013529 0.010839 -0.015666 0.007216 -0.017396 0.025408 0.003878 -0.012636 -0.004647 0.019356 0.018208 0.019769 -0.017415 -0.008866 -0.002295 -0.000183 0.007417 -0.002216
'choisissez 0.002345 0.015794 -0.016108 0.008881 -0.007457 0.010373 0.003342 0.007976 -0.003039 -0.004433 -0.004444 -0.015563 0.001484 -0.013476 -0.003405 -0.012359 -0.001422 0.007561 -0.009192 -0.005585 0.010327 -0.009789 0.005904 0.006383 -0.001151 -0.005923 -0.010667 -0.005310 -0.001150 -0.010215 0.009656 0.009894 0.001908 -0.004930 0.013840 0.002787 0.014926 0.000974 -0.002868 0.008884 0.014391 -0.010205 0.001580 -0.008458 -0.002534 -0.007717 0.005212 -0.006891 -0.002358 -0.016463
'pourrez 0.000386 -0.000477 0.005510 0.005709 -0.014187 -0.001352 0.009080 0.004551 -0.005629 -0.011691 0.016409 0.011629 0.008468 0.000593 0.012325 0.007153 0.009761 -0.005157 0.002339 0.004713 0.002626 -0.001309 0.014919 0.003681 0.008663 -0.004036 -0.000106 0.020151 -0.012161 -0.004180 0.011244 -0.001103 0.023330 -0.008833 0.008622 -0.016765 -0.004846 -0.022934 0.000146 -0.000322 0.003640 -0.013005 -0.011093 0.015068 -0.005124 0.024544 -0.007875 -0.004898 0.010534 -0.008451
acc -0.015275 0.011506 0.001671 -0.000442 -0.005975 0.011853 -0.003516 0.001117 -0.000948 -0.006936 -0.006263 0.009889 0.007505 0.014519 -0.004720 0.011891 0.006653 0.008316 0.001089 0.004474 -0.003881 -0.000322 0.015952 0.002201 0.017554 0.002644 -0.011261 -0.001356 -0.009650 -0.015274 -0.003660 0.017375 0.002775 0.006921 0.000233 0.007488 -0.008186 0.013355 -0.011064 0.015166 0.000767 0.005461 -0.002366 0.000271 -0.006123 -0.005159 -0.003587 0.016020 0.000218 0.010387
activer 0.002204 0.015822 0.001359 0.008168 -0.008080 0.010521 0.003306 -0.011298 0.000591 0.001325 0.010261 0.020080 0.002689 -0.004807 -0.011764 -0.000236 -0.009697 -0.016704 -0.004836 -0.004898 -0.001966 0.007122 0.006322 -0.017315 -0.003945 0.003242 0.017170 -0.007011 -0.000134 -0.005897 0.000813 -0.003330 0.009447 0.002726 -0.011749 0.001539 0.009350 0.011128 -0.006024 0.005691 0.001759 -0.009709 -0.012213 0.000316 0.011285 0.010561 0.009357 0.002181 0.005099 -0.010059
afin 0.013721 -0.000996 -0.014779 -0.005651 -0.008447 -0.003958 0.004081 0.004105 -0.016482 0.000899 0.004795 -0.008309 -0.003345 -0.003523 0.011842 0.003279 -0.001187 -0.006973 -0.001797 0.011239 -0.000404 -0.007956 0.000089 -0.012263 0.009130 -0.014338 0.014291 -0.007763 0.018525 -0.010499 -0.000357 0.009670 -0.006924 -0.010516 -0.001131 0.008112 -0.001871 -0.006319 0.003763 -0.010048 -0.013164 -0.007244 0.000760 -0.007358 -0.016007 -0.009811 0.001057 -0.007214 -0.001298 -0.013646
audio -0.000534 -0.009888 -0.020854 0.001088 -0.000896 -0.001938 0.002638 0.003501 0.011302 -0.005446 0.007318 0.010932 -0.001600 0.003006 -0.010770 0.004762 -0.003821 0.017643 0.019514 0.005632 -0.003594 -0.002188 0.003040 -0.004942 -0.009870 0.008253 0.007844 -0.005089 0.020256 0.003192 0.005574 0.007423 -0.009101 -0.006847 0.000860 0.010279 0.005731 0.012255 0.013073 -0.000799 -0.014200 -0.001449 -0.010462 -0.006543 -0.010131 -0.006375 -0.005709 0.003192 -0.005918 0.001559
avertissements 0.016929 -0.004464 -0.008262 -0.011977 -0.002020 -0.015984 -0.010865 -0.009712 -0.010593 -0.004470 -0.011606 -0.014379 0.010146 -0.006357 0.002173 0.006456 0.004745 -0.000468 0.009440 -0.003270 0.010892 -0.001179 -0.008215 -0.002112 0.000677 0.008952 -0.008499 -0.001712 -0.003186 -0.003991 0.003527 0.008708 -0.001523 0.018563 -0.006475 -0.017573 -0.016910 -0.021797 -0.005217 -0.008594 0.006556 0.003417 -0.012384 0.002892 0.011510 -0.004247 0.018225 -0.020910 -0.017600 0.004898
ch 0.003268 -0.008448 -0.002750 -0.014446 0.002967 0.010672 -0.000199 -0.002208 -0.005466 0.017941 -0.000360 -0.005503 0.015860 -0.006510 0.020894 -0.005062 0.019840 0.000941 -0.020097 0.004226 0.015777 0.003035 0.000511 -0.013685 -0.011003 0.004342 0.008796 0.007673 -0.006990 0.004801 -0.004161 0.008810 -0.003050 -0.008638 0.010976 -0.004257 0.008728 -0.018594 0.007197 -0.002398 0.006483 -0.013652 0.008260 -0.024851 0.015221 -0.000901 0.010273 -0.013313 0.001417 -0.007293
charte -0.003013 0.011223 0.001796 0.008607 -0.006222 0.000414 0.018919 0.002650 0.004598 -0.009113 0.002424 -0.005207 -0.001550 0.006873 -0.010832 0.000691 -0.011717 -0.006153 0.007678 -0.008187 -0.011132 0.004305 0.004036 0.000871 -0.015743 -0.015031 -0.022252 0.012302 0.004774 0.012101 -0.011239 -0.011823 0.006187 0.003167 -0.006664 -0.000344 0.000536 -0.002600 -0.004106 0.016034 -0.011427 0.002747 0.003546 0.005740 -0.000206 0.006798 0.005014 0.002042 -0.010476 -0.001775
choix', 0.008358 -0.003730 -0.005861 -0.008859 -0.008078 0.006837 -0.001292 -0.000344 -0.001124 0.015652 -0.002358 -0.005752 0.007819 -0.003355 0.002781 -0.012442 -0.015953 0.004719 0.000422 -0.008099 0.001781 0.000192 0.007599 0.008326 0.008722 0.015161 0.002195 -0.002005 -0.001556 -0.015134 0.012586 0.000167 0.000806 0.008528 0.009182 0.012146 -0.006851 -0.001545 -0.006519 0.004468 -0.006525 -0.005967 -0.002248 0.001017 -0.015997 -0.010749 0.016055 0.000889 0.008301 0.011147
chrome -0.004576 -0.000310 0.002548 0.001748 -0.000016 0.003392 0.005968 0.002214 -0.002366 -0.003254 0.003469 0.001397 -0.013771 -0.001752 0.005218 -0.006996 -0.004997 -0.007917 0.014185 0.002470 -0.002146 -0.007479 0.007081 -0.003697 -0.000589 0.003884 -0.004244 0.000929 -0.006627 -0.005660 -0.010744 -0.001888 -0.003781 0.009590 -0.000095 -0.006728 -0.001962 -0.010366 -0.004138 0.009350 -0.000866 0.000433 -0.013100 -0.012606 -0.001302 -0.010432 0.010657 0.005570 -0.009404 0.009401
ci -0.005989 -0.007786 0.013513 -0.001844 -0.016276 0.005151 -0.018452 0.015995 -0.000549 -0.003253 0.009976 -0.021264 -0.001637 -0.009136 0.011849 0.018663 -0.001278 -0.004947 0.011646 0.003305 -0.001606 -0.010827 -0.019129 -0.001933 0.025054 -0.006426 -0.000654 0.007040 -0.011372 -0.014785 0.005229 -0.012987 0.000804 0.001548 -0.000579 -0.008767 0.000804 -0.010622 -0.021519 0.009959 0.006951 -0.013236 -0.005387 0.009240 -0.002952 -0.013937 -0.000273 0.000008 0.003320 0.001302
clarations 0.002358 -0.002704 -0.012911 -0.003705 -0.013762 -0.003725 0.004630 0.017126 -0.005328 -0.010727 0.006725 -0.003185 -0.009704 -0.016250 -0.010236 -0.006139 0.002852 0.007400 0.000714 -0.020896 -0.006898 -0.011456 -0.021382 -0.007240 -0.013248 0.004122 0.016927 0.007570 -0.008563 -0.009782 -0.013388 0.001582 -0.006199 0.002571 -0.016326 -0.009931 -0.003190 -0.004144 0.021919 -0.006207 -0.007772 0.014653 -0.004633 0.000507 0.017977 0.010677 0.014956 -0.011962 -0.001237 -0.008645
cliquant -0.006232 0.006540 -0.000389 -0.003027 0.013310 0.013077 0.002241 0.003395 -0.009997 0.006878 0.000441 0.006684 -0.005946 0.003112 0.003093 -0.006760 -0.005197 -0.003807 -0.005677 0.001668 0.000820 0.012373 -0.016772 0.000351 0.000995 -0.009579 0.005254 0.008004 -0.003137 -0.005067 -0.013777 -0.012423 0.001856 0.000763 -0.010454 -0.010267 -0.009632 0.004205 -0.004169 -0.001184 -0.001032 -0.012002 -0.008938 0.014031 -0.010214 -0.006357 -0.005743 -0.020128 0.010057 -0.002246
confidentialit', 0.012783 -0.007036 -0.001000 -0.005993 0.018662 0.001231 -0.001476 -0.002152 0.014407 -0.007809 -0.007384 -0.011309 0.001241 0.008444 -0.006671 0.010423 -0.018321 -0.014149 0.000739 0.010576 0.012815 -0.008405 0.006959 0.006688 0.007304 -0.002751 -0.005407 0.006508 0.012855 -0.016224 0.001057 0.014993 -0.007153 -0.000261 0.003220 -0.021461 0.015334 0.000504 0.007423 -0.002527 0.007874 0.012476 0.007584 0.004334 -0.013445 -0.015015 0.001217 0.005320 -0.012761 -0.007735
cookies', 0.006170 -0.002748 -0.004184 0.004595 0.015562 0.001164 0.012449 -0.000832 0.010917 0.007662 -0.014287 -0.011052 -0.006603 0.000781 0.001546 -0.004596 -0.002384 0.001021 -0.017739 0.005788 -0.011326 0.000382 0.015797 0.012504 0.004827 -0.011039 -0.014474 0.000769 -0.003730 0.007111 -0.000201 0.005283 0.012332 -0.009718 -0.000619 -0.016550 0.003165 0.003154 -0.003556 0.012373 -0.004777 -0.005400 0.007035 -0.011324 0.003082 0.014360 0.008230 -0.013407 0.011185 0.013984
dailymotion 0.002163 0.006613 -0.001607 0.005737 0.007008 0.001566 0.010240 -0.003664 -0.001192 -0.007268 -0.002955 0.002330 -0.002081 -0.007670 -0.010257 -0.011851 -0.006305 0.006429 0.012622 0.001730 0.008442 0.002680 0.008602 0.008549 0.005162 0.018519 -0.001526 -0.002085 -0.003942 -0.000757 0.010829 0.014886 0.006291 0.001528 0.004278 0.002967 -0.006642 0.017128 0.003276 0.002894 -0.003894 0.007766 -0.016466 0.004771 0.009961 -0.010819 -0.008513 -0.003970 -0.016879 0.016597
disque -0.001106 -0.011473 0.004652 -0.001971 0.007456 -0.003736 0.008332 -0.017533 -0.003651 -0.003290 0.002922 -0.004858 0.015493 -0.006443 -0.009158 0.000623 0.004423 0.004399 0.001185 0.010418 0.001025 0.016261 0.006399 0.007053 0.013177 0.007122 0.013783 -0.008275 -0.001847 0.007689 0.011833 -0.013493 0.002298 0.004514 -0.008082 -0.011012 0.002631 -0.008737 -0.013465 0.017096 -0.002614 -0.008586 -0.005073 0.005415 -0.014877 0.004952 -0.006624 -0.008177 0.005038 0.012140
dits -0.003854 -0.013171 -0.000828 -0.011960 -0.006651 0.006622 0.008280 -0.022238 0.001895 -0.001122 -0.005275 -0.010235 -0.008793 -0.002061 0.007998 -0.003104 0.013215 -0.012572 0.004943 0.006680 -0.009184 0.000803 0.006715 0.006220 -0.014868 0.007109 -0.005552 0.014529 -0.000984 0.012772 0.011159 -0.015659 0.020156 0.005706 0.009958 -0.012628 0.001395 -0.008014 0.001234 0.013330 -0.000423 0.010636 0.011676 -0.005677 -0.007531 -0.007049 0.005773 -0.019622 0.011599 0.004779
droits 0.001525 0.009197 0.009671 -0.004121 0.009654 0.002394 0.001797 -0.006246 -0.006010 -0.000406 -0.012519 0.013762 0.004236 -0.006400 0.003298 0.008106 -0.016774 -0.004451 0.003220 -0.006595 0.011558 -0.003190 -0.007989 0.004447 0.002821 0.002060 -0.005262 -0.012607 -0.013592 0.007749 -0.005248 -0.007025 -0.001049 0.015319 -0.019665 0.011882 -0.000604 -0.012266 -0.000408 -0.015611 -0.002724 0.005138 -0.009627 0.014531 0.000730 -0.003657 0.001955 0.000000 -0.003050 0.015229
dur 0.000820 -0.016612 -0.009574 -0.005399 -0.011132 -0.009195 0.005520 -0.006555 -0.009574 -0.000312 -0.013373 -0.005837 0.010248 -0.000900 0.002766 0.008224 0.002530 -0.008490 0.006095 0.020292 0.002131 -0.005340 0.003872 -0.011991 0.002161 -0.010896 0.008899 -0.016961 -0.013340 -0.000954 0.015715 -0.010942 -0.004286 -0.005493 -0.009370 -0.004744 0.014608 -0.002420 -0.007307 -0.005743 -0.005781 0.010237 -0.010301 0.003658 -0.012624 0.002951 -0.002974 0.015736 0.008032 0.007439
editis 0.004467 0.006655 -0.009512 -0.000694 -0.005706 0.014995 -0.000107 -0.004389 -0.007706 -0.004589 0.008211 0.004761 0.011925 0.008763 -0.012929 -0.011926 -0.018808 0.010265 0.001428 0.006853 0.008661 0.005038 0.009684 0.008675 -0.001761 0.014137 -0.004007 -0.013526 -0.002143 -0.005439 0.010361 -0.014007 -0.003222 -0.008114 0.003946 0.008059 0.003389 -0.002492 0.009841 0.003363 0.006502 0.000874 -0.001436 0.012604 -0.003019 0.012557 0.009016 0.011410 -0.011914 -0.003422
envoyer 0.000993 0.005612 0.018711 -0.013951 0.000048 0.003597 0.006091 -0.014142 0.004295 0.014444 -0.010566 -0.006803 0.002565 0.010605 -0.014450 0.007346 0.007979 0.007587 0.005464 0.012517 -0.011363 0.002950 -0.011027 0.001687 0.002241 0.002866 -0.005578 -0.001218 0.013508 -0.005332 0.001124 -0.003768 0.004648 -0.009086 0.009750 0.007679 -0.002229 0.011618 -0.004296 0.022415 0.012651 -0.015572 -0.006250 0.012790 0.010071 -0.014843 0.015818 0.001936 -0.003353 0.006669
faciliter 0.000832 -0.015585 0.000638 -0.012019 0.006744 0.002944 0.010555 -0.003504 -0.004076 0.015740 -0.011902 -0.007476 -0.008047 0.014861 0.008712 0.005830 0.002087 0.005093 0.007679 -0.003916 -0.000011 0.000421 0.002423 -0.003448 -0.001178 -0.016002 0.003716 0.005678 -0.002833 0.001030 -0.002194 0.006695 0.001982 -0.006113 0.009415 -0.000363 0.002599 -0.003820 0.007897 -0.013241 0.005135 -0.004911 -0.000419 -0.011992 -0.008327 -0.012413 -0.001251 0.004408 -0.003843 -0.015770
g -0.008487 -0.004783 -0.012455 0.005258 0.000255 -0.003250 0.005452 -0.010214 0.013228 -0.003473 -0.005495 0.000188 -0.011437 0.006282 0.000252 -0.004987 0.002291 -0.008067 -0.011169 -0.004005 0.004119 -0.007694 -0.001739 -0.000727 -0.002413 -0.011475 -0.002977 0.004247 -0.001679 -0.003441 -0.016987 -0.004991 -0.004393 -0.010764 0.003277 0.005857 0.006029 -0.008141 -0.012228 0.016427 0.010683 0.000680 -0.013027 0.003202 -0.003511 0.000632 0.000246 -0.007447 0.004668 0.001529
gales 0.002955 0.008628 0.005104 0.005146 0.012514 -0.002575 0.002715 0.007643 -0.000082 0.015385 0.008906 -0.006416 0.005552 -0.013599 0.005415 0.001272 0.014658 0.004126 -0.009961 0.021355 -0.005601 0.011884 0.000461 0.011547 -0.008714 0.011673 -0.005365 0.007189 0.000840 0.006009 0.002879 0.019007 0.000677 0.002671 -0.017684 -0.016752 0.017077 -0.003112 0.004077 -0.015563 0.003677 0.004755 0.004247 0.003676 0.003120 -0.005805 0.006131 -0.005344 0.002656 0.006772
https -0.006384 0.009579 -0.003424 -0.000367 0.009770 -0.014133 0.006420 0.010783 -0.003986 0.003509 0.000533 -0.004199 -0.007164 -0.011055 0.008160 -0.006994 -0.010132 -0.005510 -0.002816 -0.003386 -0.011218 0.014896 -0.012080 -0.004940 0.005998 -0.002973 0.004239 0.008368 0.009829 -0.009227 0.009485 -0.003358 0.002461 0.001091 -0.008272 0.012161 -0.003814 -0.006967 0.001343 0.015979 -0.009305 -0.007237 -0.000773 0.005262 -0.001779 0.004694 0.012297 -0.001853 -0.001950 -0.000462
ic 0.000647 -0.002815 -0.007011 -0.006569 -0.004364 -0.011756 -0.013662 0.008900 0.005454 -0.001971 -0.005329 -0.007787 0.007819 0.011037 -0.004140 0.007512 0.001548 -0.009339 0.000981 0.005023 -0.005515 -0.016601 0.009116 -0.007713 0.005512 0.006600 -0.012296 0.007160 0.006659 -0.002095 -0.005161 0.006741 0.002768 -0.013603 -0.012376 0.001736 0.013899 0.008342 -0.008940 -0.006773 -0.009785 -0.003412 0.000491 0.012855 0.002453 -0.009625 0.003188 0.002401 -0.008060 -0.011031
identifier -0.004369 0.006920 -0.001365 -0.016242 -0.002249 0.008754 -0.000036 0.002136 0.001183 0.005975 0.010171 0.010503 -0.011022 0.002854 0.002576 -0.003018 0.000090 -0.006730 0.006614 -0.014834 0.003229 -0.003939 0.000469 -0.010667 0.002537 0.001401 0.000747 0.009020 0.000785 -0.002762 -0.004748 -0.005442 -0.008495 -0.004629 -0.007806 -0.002343 -0.010362 0.005572 0.016567 0.018728 0.001514 0.000495 0.008749 -0.003051 -0.005613 -0.004621 0.005156 0.010711 0.005490 -0.006977
insertion -0.010790 0.002076 0.004369 -0.007224 -0.000340 0.013597 0.011686 -0.010251 0.008485 -0.009370 -0.009479 0.003572 -0.009833 0.001166 -0.007070 -0.010053 -0.001490 0.000879 0.005467 -0.004344 0.001184 0.013468 -0.009720 -0.007959 -0.016410 0.014236 -0.005500 0.008212 -0.004652 -0.001640 -0.008152 0.006093 -0.002843 -0.014792 -0.003067 0.005107 0.004671 -0.006857 0.024208 -0.011535 0.009360 -0.009789 0.009356 0.010356 -0.000233 0.001703 -0.002794 0.009937 0.013349 0.015155
livre 0.018468 0.006037 0.008237 -0.010112 0.004888 0.002966 -0.002615 -0.006254 0.013153 -0.011333 -0.009517 -0.000968 0.001354 -0.016527 -0.020158 -0.010226 -0.008567 0.004896 0.001252 -0.001769 0.008865 0.010710 0.012210 0.006226 -0.008566 0.006506 0.002229 0.004573 0.016229 0.000659 0.011232 -0.012239 0.006350 -0.007268 -0.014063 0.007980 0.006663 -0.010942 0.002657 0.014967 0.003228 0.009244 -0.009521 -0.002049 -0.005355 0.008904 -0.003852 0.005951 0.002734 0.004399
mentions -0.000784 -0.003953 0.011718 0.009950 0.008180 0.001720 0.000770 0.006653 -0.000878 0.011878 -0.009842 -0.000216 0.002995 -0.006490 0.001793 -0.005308 0.004042 0.016437 0.000007 0.010812 0.013506 0.002531 -0.002398 0.002728 -0.004629 0.005051 -0.012456 0.001391 -0.008875 0.006129 0.008320 0.017082 -0.003303 0.015166 0.000474 -0.018920 0.014729 -0.002953 0.014219 -0.012454 0.009483 -0.000393 0.010685 -0.010515 -0.013055 -0.012807 -0.008070 0.006107 0.003611 -0.014532
microsoft -0.004855 0.013031 -0.003296 0.005401 -0.006506 0.005515 -0.007974 0.005018 0.014727 0.001006 0.014552 -0.002696 0.012402 0.015733 -0.002425 0.002891 -0.008468 -0.010447 0.009929 -0.005965 0.011079 0.000110 0.007705 -0.002928 -0.005976 -0.004006 0.013648 -0.014994 -0.006934 -0.001424 0.009607 -0.009988 -0.006186 -0.001773 -0.006021 0.004467 -0.005995 0.012797 0.011268 0.002908 -0.008369 -0.006201 0.003478 -0.014952 0.007771 -0.015761 -0.001182 -0.013634 0.002804 -0.001961
modalit 0.014573 -0.001396 -0.010463 0.012732 0.009836 0.005170 -0.003948 -0.001654 -0.018043 0.006798 0.010978 0.009131 -0.004504 -0.008678 0.001564 0.013462 -0.005653 -0.002982 -0.013202 0.006029 -0.008559 0.002288 -0.000082 0.000482 -0.020896 0.006407 -0.004423 -0.014686 -0.004547 -0.000773 -0.007836 0.004134 0.001439 -0.005636 -0.019829 0.000857 -0.001721 0.008383 0.016147 -0.006418 0.003475 0.014237 0.016726 -0.012146 0.006582 0.006107 0.009603 0.008807 0.013899 -0.008230
moment -0.009495 0.007360 -0.013449 -0.004093 0.009517 0.005389 0.007015 -0.001404 0.004102 0.021707 0.005319 -0.007687 0.015667 0.003088 0.004213 0.002801 0.009764 0.008776 -0.001769 0.015198 0.010613 0.016225 0.013197 0.013033 0.008438 0.000555 0.015125 0.004043 -0.029596 -0.008581 0.000191 0.000564 0.020891 -0.019856 -0.000680 -0.009391 -0.001802 -0.013721 -0.013908 0.001315 -0.004009 -0.003365 -0.016842 0.010971 0.007736 0.008624 -0.008175 0.003651 0.005658 -0.006088
navigateur 0.004568 -0.001692 0.009250 -0.002676 -0.002437 0.001245 0.004672 0.006808 -0.012498 0.007904 -0.004658 -0.006808 -0.000245 0.013394 0.005176 0.009327 -0.004334 0.003900 0.013618 -0.012634 -0.004839 0.005245 0.001113 -0.004510 -0.005275 0.015528 0.005321 -0.004249 0.011293 0.007055 0.008720 -0.018953 -0.006014 0.017524 -0.007472 0.013100 0.003628 -0.004977 0.000383 -0.004915 -0.010947 0.003987 0.009642 -0.006051 -0.000759 -0.008917 0.000774 0.000371 -0.000504 -0.003850
niveau 0.016171 -0.020613 -0.014768 -0.001928 -0.010162 -0.011597 -0.013163 0.002990 0.004216 -0.012697 -0.010609 -0.006122 -0.011733 0.009908 -0.001714 -0.007270 -0.011571 -0.003082 0.004061 0.011373 0.003367 -0.007857 -0.002539 -0.012819 -0.017790 0.012503 0.011400 0.013404 0.017731 0.007486 0.010921 -0.012028 -0.015964 0.013105 -0.003503 -0.008358 0.003089 0.000336 0.005009 -0.014569 -0.018816 -0.006228 0.012010 0.000076 -0.008017 -0.005949 0.002689 -0.015742 -0.012370 -0.010985
outil -0.002711 0.010979 -0.003255 0.005023 -0.006748 -0.001999 -0.008918 0.009070 -0.001388 -0.003585 0.000161 0.006263 0.003694 -0.017629 0.004813 -0.012964 -0.008815 -0.006900 -0.005425 -0.009845 0.002276 -0.022593 -0.005335 -0.003847 0.019235 -0.008243 -0.019827 -0.021149 0.007080 -0.004656 0.014722 0.005229 -0.012569 -0.017471 0.010458 -0.002248 -0.013174 -0.018210 -0.009904 0.001465 0.017127 0.011591 0.001904 0.006082 -0.010032 0.000850 0.001049 0.009962 -0.014109 -0.009068
peut -0.014861 -0.001988 -0.002499 0.001356 0.004615 0.008311 0.005615 -0.013612 0.012664 0.003275 0.009075 -0.019694 0.002810 0.000924 -0.003610 0.005162 0.003305 0.010143 -0.004151 -0.002173 -0.016370 -0.003117 -0.002325 -0.000182 0.006289 -0.009577 -0.005773 -0.005354 0.011756 -0.002814 0.013432 -0.011390 0.010194 0.012211 -0.006245 0.003236 0.013359 -0.007059 -0.015099 -0.011269 0.010298 -0.021153 0.002086 -0.000878 0.006640 0.001794 0.006806 0.003095 0.001267 0.008479
plus -0.020178 -0.002604 0.010802 0.007105 -0.000723 -0.009038 -0.012017 0.009712 -0.010133 0.002280 -0.004488 -0.004583 -0.008357 -0.012514 -0.000951 -0.004014 0.001947 -0.008694 -0.018158 -0.004109 0.009459 -0.006454 -0.001973 -0.008595 -0.009367 -0.009933 0.002896 -0.000030 -0.010640 0.014916 -0.001705 0.012686 -0.000248 0.003745 0.001274 -0.002871 -0.002109 -0.007157 0.002130 -0.006647 0.012658 0.012098 0.016441 -0.010703 0.007045 0.008337 0.011292 0.013664 0.011820 0.013123
proc 0.004832 -0.006216 -0.005937 0.006751 -0.004100 0.005011 0.000227 -0.007320 0.001125 -0.000723 0.005441 0.001264 -0.001650 0.010310 0.004066 0.006613 0.000658 -0.003202 0.010274 0.013709 0.005106 0.002680 -0.014002 -0.003886 -0.007433 -0.001534 -0.007831 0.002071 0.001494 -0.008450 0.002207 -0.000031 -0.000704 0.004081 -0.011590 0.003610 -0.012190 -0.011718 -0.005830 -0.000663 -0.013275 0.007763 0.006806 0.011105 -0.008730 -0.014138 0.000206 -0.005543 -0.000086 -0.001260
prospectives 0.012351 -0.002586 -0.007307 0.001756 -0.001106 0.004531 0.016462 0.012871 0.003613 0.010747 0.012389 -0.001242 0.008611 -0.010649 -0.005816 0.010206 -0.010993 -0.005566 0.005549 -0.019889 -0.005607 -0.009528 -0.025118 -0.010324 -0.005325 -0.003748 0.011592 -0.002458 -0.017439 -0.016869 -0.011347 0.003544 -0.019270 -0.000067 -0.011379 -0.015407 -0.001013 -0.004907 0.012867 -0.008239 -0.006609 0.009089 -0.012514 -0.009597 0.027995 -0.009373 0.012717 -0.010579 -0.005445 -0.014166
puis -0.007074 -0.006676 0.004807 0.013248 0.003392 -0.011394 -0.016928 0.006805 -0.013461 0.006168 -0.005731 0.006420 0.017270 -0.009048 0.004604 -0.011182 0.001496 0.000555 0.003927 -0.011973 0.011447 -0.005747 -0.012275 0.004875 0.013788 0.006664 -0.013388 -0.017628 0.000668 -0.007467 0.010124 -0.001463 0.003302 -0.008349 0.011970 0.007383 -0.006864 -0.021988 -0.014821 0.000523 0.022200 0.000329 0.001803 -0.000549 -0.013061 -0.012280 0.001118 0.007894 -0.013365 -0.016590
refuser 0.009715 0.003714 0.007137 -0.010598 -0.006803 0.001018 -0.008314 -0.002961 -0.002682 -0.001588 -0.006486 -0.001199 0.002625 -0.002384 0.000671 0.007733 -0.016298 -0.003367 -0.012990 -0.003905 0.010447 0.009547 -0.005901 -0.010973 -0.013110 0.011046 0.001742 -0.003691 -0.006947 -0.010751 -0.002356 0.012134 0.000586 -0.003703 0.004628 -0.005676 -0.005506 -0.014282 0.017409 -0.001851 0.007525 -0.002457 0.002959 0.008711 -0.000362 -0.001592 -0.002171 0.002962 0.004713 0.017915
rss 0.002434 0.008433 0.016222 -0.010744 -0.015207 0.015325 -0.009871 -0.000364 0.003644 0.003503 -0.004528 0.015674 -0.005697 0.001219 -0.002964 -0.005003 -0.000950 0.001965 -0.010222 -0.003496 0.017523 -0.018463 0.013549 -0.003855 0.005797 0.008106 0.012203 -0.015821 -0.000662 0.008584 0.010105 -0.006935 0.001178 -0.009655 0.011407 0.025967 -0.003804 -0.000624 -0.001195 0.002619 -0.007696 -0.007377 0.014301 -0.010083 -0.000259 -0.005037 0.002563 0.010240 0.003091 0.015959
terminal 0.005098 0.001377 0.020841 0.009868 -0.007560 0.006124 -0.002716 0.007298 -0.002325 0.002891 -0.008630 0.006098 0.011505 0.011388 -0.007327 -0.002891 0.015086 -0.006536 -0.002277 -0.013613 -0.004949 -0.000958 0.008727 -0.007518 -0.006612 -0.008570 -0.005544 0.008098 -0.004047 -0.000084 0.001021 -0.000813 -0.010879 -0.009799 0.002197 -0.011235 -0.007006 0.025035 0.012488 0.015553 -0.006161 0.000741 0.001773 -0.003030 0.017951 0.008708 0.004112 0.003216 0.014185 -0.018710
tres 0.006289 0.001054 0.001404 0.002433 0.011017 0.000251 0.003430 0.000127 0.011164 -0.007587 -0.015221 -0.014110 -0.000492 -0.001810 -0.011785 0.001870 0.003002 0.011650 0.004769 0.025007 -0.005451 -0.000024 0.007512 0.017084 0.005100 0.004459 -0.008892 0.015491 0.016361 0.004322 -0.017846 0.019703 0.011382 0.001703 0.022560 -0.013747 0.024216 -0.001494 -0.015572 -0.002387 0.015469 -0.000190 -0.006703 0.009921 -0.007616 -0.000748 0.000531 0.002952 -0.000234 0.005588
utilisation 0.001294 -0.003797 0.003067 0.000698 -0.014734 0.015840 0.003588 0.007892 0.004367 0.012990 0.003176 0.001536 0.007678 0.007607 0.012335 -0.008201 0.000022 0.000755 -0.003089 -0.006544 -0.012473 -0.006271 -0.004798 0.014024 -0.008591 -0.007445 -0.003524 0.014098 0.009246 0.011727 0.003270 -0.001276 -0.004027 -0.003999 0.005900 0.000854 -0.010511 0.012623 -0.000971 0.017305 0.007800 -0.006848 0.017372 0.010727 -0.007759 -0.014258 0.009717 -0.004374 0.006264 0.011503
windows 0.007915 0.006461 0.003801 0.006954 0.004425 0.000451 -0.011037 -0.014462 -0.004403 0.001322 -0.000918 -0.009045 0.000621 0.002407 -0.015829 0.001889 -0.002939 -0.002804 -0.000174 -0.010931 0.003772 0.000882 0.004694 0.004454 0.006067 -0.006021 0.006817 -0.014747 -0.010213 0.019000 0.005863 -0.014963 -0.007864 -0.002036 -0.005625 0.010724 -0.006280 0.012103 0.017245 -0.001364 -0.006055 -0.001307 0.004265 0.001465 0.001086 -0.003862 -0.007840 0.002197 0.016601 0.004091
<unk> -0.000498 0.001140 -0.000689 -0.000595 0.000460 0.000103 -0.000678 0.000628 0.000282 0.000483 -0.000053 0.000196 -0.000777 -0.000734 -0.000656 -0.000963 -0.000233 -0.000653 0.001385 0.000873 0.000399 -0.001044 0.000500 -0.000720 0.000245 0.000772 0.000533 -0.000109 -0.000451 0.000119 0.000459 -0.000247 0.001075 0.000948 0.000381 0.000550 -0.000330 -0.000731 -0.000172 0.000286 0.000588 0.001009 0.000666 0.000330 -0.000794 0.000059 0.000845 0.000877 0.000060 0.000742
